encog,BasicNetwork,java,3.2.0,1,1432719384023
[BASIC]
[BASIC:PARAMS]
[BASIC:NETWORK]
beginTraining=0
connectionLimit=0
contextTargetOffset=0,0,0
contextTargetSize=0,0,0
endTraining=2
hasContext=f
inputCount=17
layerCounts=5,34,17
layerFeedCounts=5,34,17
layerContextCount=0,0,0
layerIndex=0,5,39
output=0,0,0,0,0,0,0,0,0,0,0,0,0,0,0,0,0,0,0,0,0,0,0,0,0,0,0,0,0,0,0,0,0,0,0,0,0,0,0,0,0,0,0,0,0,0,0,0,0,0,0,0,0,0,0,0
outputCount=5
weightIndex=0,170,748
weights=-36.6795220994,3.3762516953,0.7989735555,-22.1089975204,13.6049811001,-81.6647656802,10.4788687372,6.5208888688,140.8427780992,16.6084701002,-0.2194336201,72.5582888467,-1.153069833,10.623043764,-0.4295895133,40.8677257997,19.1565710406,-0.3212673648,32.3229528498,23.0604268148,-39.7411108502,-0.1662804376,-4.8749856203,-0.3053421148,63.6709018722,5.4434463106,4.2953704989,88.9417067567,-29.0449106111,-120.9699943725,40.1089665497,-9.0208786451,8.9396613628,-46.7236877499,10.7700234982,0.0901387843,-0.0128182863,30.5200787408,-13.3316248495,-5.8937603655,1.1647241263,7.7513590114,5.4964188862,0.214904493,27.1952251129,-0.3129102134,-4.2663604183,10.5710677725,-1.9510717683,0.1043833401,19.3235945608,-13.9386034012,14.131272492,0.1260865472,0.9037779571,9.1597724985,-7.2366863422,26.3189624699,-9.6461612222,46.1178734325,9.2457205224,4.3984475681,0.1187252868,0.2715207736,0.1540379228,19.6319738042,-16.0440110212,1.2842272741,0.3691049169,47.6130180039,43.3121924395,-6.5775673627,-1.0760928114,19.0955405942,-0.3349799357,-12.3759675586,0.7226524303,-0.0050575229,-16.9431432778,-27.2310568657,26.8487773791,-8.0513742052,-24.2793524945,3.1984514684,3.8613455984,0.8305080411,28.2831375661,0.0047509607,-0.1765099518,-5.8553855165,46.0260605224,-4.8746166581,-2.391928077,-37.9328181857,0.710276758,-33.7707357689,-5.9999672224,-3.1653970527,6.0679320568,-21.7404119927,10.0321487495,15.4554831748,15.4279704988,-0.0878940183,-0.5079299533,-77.04770537,9.5208046898,-24.6571953176,-68.8042588444,-2.1338642072,-0.5469941542,-51.2062954634,0.9201512667,0.0340625235,69.027616592,0.0369199831,-1.5908827668,-126.8503718785,2.7408372333,-11.5979512053,2.5051051138,109.2316291083,-12.7196667349,-22.4142280691,0.0188485293,0.0342409723,-40.2882477585,-40.8517569,0.9443183339,29.2003404106,0.8449540303,73.8684413014,-6.4271650417,-0.0627858213,2.0364008657,39.1987004837,-21.1692709211,-0.3547051641,0.3371646861,70.2952548454,35.3181873967,32.8301269872,57.2893062977,0.0936229594,0.0039035471,0.1599726045,-107.6071885253,1.0515687008,17.1473048284,-5.0766055299,17.6874014374,-0.0662551427,0.2915469784,23.6451381404,12.8999342183,0.4836677263,17.7012797413,-0.0296025832,-21.803965344,-1.732942961,-0.4351586789,-3.533601561,0.2583972582,-1.1960101333,15.8796987711,-5.8146628601,-0.5866004118,31.5526110387,9.6419001002,-2.567105763,-15.2279844953,-127.5077583915,8.8801217159,79.9912585423,-117.6344069257,-31.7947966617,-118.9513212244,5.6506925787,11.7471690344,6.4455216272,5.0650915201,13.5952631453,1.6961402173,79.1096380961,24.9721721321,25.3577926426,-0.1135291385,3.3353707249,2.7794525212,5.6282036553,8.3076711061,0.5484372634,-2.0206496177,-1.5468785826,0.3647754918,2.0578564395,5.9063653456,-2.2856712436,0.2256693268,0.2270960564,0.1014737566,-0.3891951882,-0.3446634809,2.5031087342,5.3002678051,0.1016425965,5.6610592197,0.6525183573,0.1148345885,-0.4164502244,-0.4350653886,-4.1673160868,0.7367957839,6.1344024943,9.2554400229,-0.2941449706,-0.3924265439,0.1073659506,-0.3890396383,0.0051536783,1.5195566226,0.0728250085,0.2910922849,0.2655176003,2.4695853014,1.7010766189,-0.22076661,2.5027011744,1.9565689291,0.1886876789,-1.1627183509,-3.5748570168,-0.5683121079,1.1432987684,1.1821241079,0.6890209656,0.4938633442,0.4503079324,93.0086820909,1544.7576453915,1099.5296807044,436.3824581406,-168.6678243666,-6.9821718513,-37.0488609353,-26.0022633636,-2.72738722,9.0658913432,80.4151231175,3.4824053272,-182.4183267625,83.1106524293,56.5781476767,264.519640837,-18.8779872635,-20.7018991792,-26.4564336343,7.261793625,30.2519351864,286.050439592,-61.2103766279,27.2456042358,2.2822440832,-8.668781116,-20.1295058419,3.758808406,0.9587060377,0.3040931216,7.6554706366,5.8435252223,18.596173711,13.3802117603,0.1250834545,-0.1278365034,0.4429849993,-0.6804640494,-10.0852724224,-1.5214544347,2.9255167209,4.8564436578,0.2126076863,-2.4476330106,-2.3749761639,0.2278955162,-0.166978591,0.6354083297,-0.0211952543,0.5730826036,0.4899546342,-10.2767244387,-4.2387893039,68.2302799681,-18.1836799403,-9.0216017049,-24.3817948581,14.9995235713,13.5576530875,6.8409271978,1.6988585229,3.5222132195,16.2325967624,1.2613819962,-0.5863078155,-0.1887423987,1.3082736264,-4.1310841701,-0.6976087748,1.0302818925,2.8970684989,5.7809078325,-5.604517504,-4.0365008008,7.3614217228,1.5503474908,2.2958738628,10.4677998638,-5.7322622809,5.0954600669,1.4585222287,1.0709470804,-0.3297986106,1.1883884632,-0.867437006,-0.5095834344,-7.3042814631,2.0628707731,19.6537874052,-13.9641493046,5.9636911375,-0.7922123669,-2.4059391069,2.0701297491,-2.0122819397,4.1509286781,16.8249240648,3.2443325818,0.1360862281,-0.678449974,0.6784590312,-7.6439106435,4.2700780485,35.8579489906,14.9004899642,-1.0553898524,6.7136193552,-4.6301645907,-2.9241816282,5.872005045,-0.3238410921,-2.2545477354,0.235290558,-1.3705608739,-0.3214167071,0.3693501826,1.2266174615,15.1420371361,8.8193204986,-7.8549413329,-11.3704551699,-16.1750107345,-11.5725927939,-26.9652096893,13.3875617685,19.519005485,5.2838456578,22.0038167969,7.2795569252,-1.2014281932,-0.4982105117,-0.7043983003,-0.4659774507,-2.2271931887,-5.9843127374,-1.5760103662,13.6886771978,598.2647382543,-25.6509765496,-92.8603401339,-306.4692554224,162.6869700503,171.120585291,49.6661681599,4.8419934452,-46.6096865308,-38.3201334946,5.6891181126,65.2240523109,320.9086085439,154.302827354,137.0361555674,8.8048098015,-13.5968642872,52.9056013954,114.6217484105,-4.9558340412,5.4309672211,0.1430614984,9.6776666249,0.3608795418,0.0715430647,-0.1349666847,4.485776362,2.1752402144,3.7176676664,0.9328544098,-11.7040773043,3.0019764826,1.0038187206,66.8536932693,2.0072408531,186.6940510198,308.4809038626,9.0582707319,-0.995767239,-4.44190729,-2.6208363237,1.7151334463,0.3584198045,3.2989141928,8.154980002,4.6912688634,-6.0873709317,0.2824713417,6.0488993502,23.2002443936,0.9491906172,-0.6182697961,24.1390503028,0.4060583633,-20.9669128545,-10.7356161294,2.0653276548,-5.2407528156,2.3695825063,22.0989569498,8.3977613089,-2.3716203351,-1.7557930601,-0.3145718002,-0.0710604407,-0.2042669891,4.3721109458,-1.7812179016,-5.1820127807,25.2189945962,-0.0227119268,-16.6099211606,8.811652463,3.8351701988,0.5709368856,7.3987327268,0.7453498716,-0.4058050809,1.1976108494,-4.925317336,-6.9439286465,1.3445732132,1.0470669248,0.0904034321,-8.2073874581,-94.6652992313,1115.6932881161,-234.004556239,1.2354671238,4.3904264056,-12.9981793288,-39.5046293961,-3.4980962494,-7.8258566217,-3.3349162944,-27.3158280575,65.467844658,89.1277972809,90.6931172293,109.4432081992,54.4045424257,1.0878555106,1.6515649486,-2.4678365278,-0.6750600118,5.40870273,-3.6407250492,-2.7331684739,0.3490538902,3.1046449294,0.5654879712,1.6159233882,0.3755076936,0.1267003528,0.2648085902,0.2586147001,1.4055687159,0.0312934391,14.9431461122,-20.0033047769,435.2149915229,-410.7215379784,-283.8782065646,-179.1249211512,-38.7943544231,-51.6193971064,26.7536995875,49.4683365475,-94.0664866465,0.8349541415,361.6223506363,313.2687938582,9.9209545789,634.6195760847,24.6197956094,2.8519885087,-1.4958292107,-28.4857172082,-28.8219883032,-80.6145731257,-2.609784287,17.8103914774,3.1695054708,-1.3070697636,3.0345297315,-2.9144698381,1.62620265,2.7752132348,-4.5385859962,6.1496998625,29.9160247006,21.1410930663,-56.1586089555,127.9615337351,48.8332195112,-23.8278211839,0.7487655456,0.5381366394,-0.5627824233,1.8401592646,-0.187612279,-0.2165423643,-2.1378073732,-0.454905281,-10.6993274931,4.74950598,7.8156101998,0.7775976894,52.6303474411,7.0718162996,15.2771872206,27.275714152,26.5394159753,24.0269176363,-1.9259783966,11.1019824228,31.831428225,-2.2709984205,-6.7125026676,-0.6108049342,-0.5197235207,-2.5350053711,-0.1327769411,6.0877449043,4.8207768971,0.2781369156,-0.3221380571,46.0782881181,5.3238002715,12.7506675604,17.4929759599,-0.7490606384,5.2583932548,8.5803850099,-5.1844870257,-2.9390992759,9.0521247959,0.9064171748,6.8305425494,0.8026540687,0.3022434129,-1.7999970333,-2.8765532444,9.3925685843,-65.6556128839,120.4104480767,-71.8088103914,173.4756913012,-283.0018968313,-186.2674860899,1970.1192890095,32.2968072721,-41.4404072329,-47.1070391769,72.1723490648,-23.58536656,-20.8024852593,35.6004311903,-17.6226617215,-10.7941458239,1.0700826908,18.3383368947,-4.0748486339,-4.0648324958,2.239303904,-4.8128628151,0.3664219373,3.867372801,0.7372571046,-0.0588703251,-0.2777699594,-2.4902113994,-1.5520751643,0.5785004857,4.3835032691,0.4850586985,0.3192077679,90.805086379,-263.5910088213,-317.1486063314,-362.7212803497,-11.1024183922,15.6495823932,5.8120473878,193.5416399504,6.0966748523,25.9211339628,1.3466797324,60.6449026216,-3.964424668,-0.1516028487,-0.2071633282,60.414799532,13.4893926003,-0.6964348347,0.3428670605,-9.2152647747,3.6125085186,14.6824139095,13.861177788,-3.0056706061,-1.3780616753,3.7779602844,0.5487947645,1.3903390456,-0.4788487528,-0.6998661949,-1.371390892,2.5679242627,0.1871524619,1.2457694399,365.5285234083,42.7021646775,68.1463418264,699.299597344,-247.3993698529,-98.5760418856,105.8156225986,-40.2908901963,114.4130459022,220.8017161007,115.232524388,49.8686794495,39.1223054157,-20.6429371735,68.8144403282,-80.6803842672,-70.1548779435,3.8436001215,-8.3826281604,-3.1540243982,-23.0359612524,13.5493867259,-31.7643437104,35.8894146089,81.6843981202,57.1914752114,62.7443104989,16.9604400339,5.9154139065,-2.4531900481,-4.2026490009,-1.1904876246,-19.2096621669,-1.802729408,-66.8164808416,12.5377307952,15.1093403323,-53.3508014202,16.1115162651,159.158734983,193.225618895,-38.6195954003,8.8842717757,-50.8113133468,74.6066260145,-37.6675488864,-1.5519232761,4.0425976264,-1.8917513847,-58.5285297119,184.563179748,-4.1393996827,-18.6911952881,3.2595063331,-4.2038295214,-8.8198811006,-4.0305426221,-6.3296177543,-12.3992235404,-30.232769464,-9.7586393876,5.2294008994,3.0444555876,8.6986443265,11.5770850534,8.8466199218,-0.6742572514,0.0664720545,32.0024940093,618.4835987984,-770.542232729,10.4073333334,-21.8194378399,-15.4097225342,6.4032598257,29.6737436702,4.5738544626,-2.2448421822,0.4523959676,-19.6924386525,-1.9082692368,11.7309039759,30.4685583366,-4.2691476726,-0.3368420571,0.3857907637,9.5639937786,18.3568734441,-10.2012229064,-33.4548186413,0.6374963369,-8.6083095697,-15.6695816946,4.4520769144,2.1906676211,0.3364415605,2.8578113408,-1.9332482173,4.2435661414,8.7689061463,-0.1895977702,-1.7740968842
biasActivation=0,0,0
[BASIC:ACTIVATION]
"org.encog.engine.network.activation.ActivationElliottSymmetric",1
"org.encog.engine.network.activation.ActivationElliottSymmetric",1
"org.encog.engine.network.activation.ActivationLinear"
