encog,BasicNetwork,java,3.2.0,1,1432564690558
[BASIC]
[BASIC:PARAMS]
[BASIC:NETWORK]
beginTraining=0
connectionLimit=0
contextTargetOffset=0,0,0
contextTargetSize=0,0,0
endTraining=2
hasContext=f
inputCount=17
layerCounts=5,34,17
layerFeedCounts=5,34,17
layerContextCount=0,0,0
layerIndex=0,5,39
output=0,0,0,0,0,0,0,0,0,0,0,0,0,0,0,0,0,0,0,0,0,0,0,0,0,0,0,0,0,0,0,0,0,0,0,0,0,0,0,0,0,0,0,0,0,0,0,0,0,0,0,0,0,0,0,0
outputCount=5
weightIndex=0,170,748
weights=43.5419064922,0.3866359772,-0.247948221,37.797863704,48.4289825632,-1.1427126833,1.4366317009,23.9848226888,18.9920034767,0.6902637385,-2.7777747333,-0.2345220414,-1.1265762419,100.7983183499,8.4076022244,-3.3418586874,-31.3450633548,-1.3346678612,17.5150478154,10.9714975189,-0.1398951526,-2.5699806609,-7.8086073391,4.3550528234,9.5224290869,13.1653934178,-23.340636928,41.6663944625,13.0349955459,-0.7424938441,-41.2950289771,-3.8319262545,-41.2610745512,15.9858034834,-0.3594425115,-4.2426842583,17.2397866741,-19.1224294958,17.8185610191,-17.1240267274,0.6308326157,0.2837214154,-0.4754489146,28.8432255517,-1.9066572354,9.6566715234,9.343723082,-0.2209055218,-5.7516803673,-10.0025359127,10.9049727027,-8.7788408841,-3.4776354991,0.5076159583,2.0659377044,1.0524309639,-9.9212841697,9.0649722275,0.3691170294,36.5572053546,-0.3463361135,1.2466873819,-7.1028101927,34.4843989994,15.5872556981,0.8534752536,0.0271818406,0.4259668863,-0.0923341464,6.4276199799,2.5031549861,-0.9982807066,8.9649877176,7.1280036848,10.7593831637,-8.8430479251,-15.7998177552,-0.2198160372,0.1175720055,-14.1881776372,1.1986922838,8.9432432453,0.2493091925,-1.0086352125,19.6450345877,27.3726746141,-2.46780003,26.111906346,11.1295057634,-22.8220468857,30.8601751932,-4.6441997541,1.6978062764,-16.4057141607,15.8645947055,-43.347979357,-0.4317752583,0.0844816497,-0.9747715002,8.2026761571,-5.9173518802,-3.3407286705,-1.2645754193,52.9677486737,-0.1292548625,-27.7059422392,-28.2323198869,13.5335891184,0.2123903909,0.4979065817,5.8622817245,0.4135473177,0.9634743303,-7.6382040181,-9.7434742047,-40.1191444768,11.9118595775,11.7455495894,-14.4176650987,1.619416314,-2.5801038134,-1.2665924248,-0.0851178415,-84.7486973221,-25.5791483203,-0.0706744184,-4.538963156,-27.9834846214,-17.4553291989,11.1579023861,-6.1168508465,-9.1776909179,20.6151336911,-34.312667737,26.185467022,-31.6780338196,-0.1628106901,2.457587439,-0.0208672244,3.2047904628,-1.4532259571,-14.5473211633,-5.3565187205,-1.9848685787,-4.4562316844,0.5921384209,22.2806880211,-7.5352434419,-6.9874263942,-1.073789161,11.3256576715,27.312557504,-13.0181112995,16.2393699532,0.2224027397,6.7201080985,-0.0468191324,162.2804937838,7.0570221967,-45.4031595915,0.0044023481,3.2936790538,5.4131514926,1.0179252602,15.9418389876,1.3656744167,-1.6555953417,15.7319303363,-18.2329459644,9.8019736105,0.5341342847,2.9225004054,1.8773573882,1.3710581682,3.393741359,14.3210207986,1.2937696527,0.4053523739,6.711560355,1.3165843068,-0.0324060365,0.2380840478,0.7888207195,0.1421986735,-0.4129864363,0.434159471,-1.9647286831,642.3432874513,256.1320858812,295.5570646514,711.6505850849,-25.7833349054,75.8815599833,205.6239445105,-56.0911806903,53.2042281659,3.2538240266,-121.7727282519,-12.4026635867,134.8572142217,606.2468789936,233.5217161409,1.9385012453,-160.9604610795,10.244457791,10.2030622691,2.2829812434,1.9622668651,14.3752292333,2.3174961848,0.5873066458,9.8117791145,-0.6233319698,5.9584683109,5.8481500317,6.2877783854,3.243301666,8.2566785279,-3.6566098267,-2.194261301,1.9743090076,0.2103774038,0.8923978853,1.1076376443,-1.327718488,-0.2484922253,-4.348636694,2.421176684,0.8628944212,-1.0179782486,-1.7867847977,-0.1584210688,0.8579460822,2.7865858814,0.1382365081,0.3209239328,-0.0217269083,-1.2234223684,0.5714786259,18.6160799021,1.8704711427,3.3258036116,2.3624292475,-2.3084590988,-2.2256696207,1.2813370454,0.7810398839,-0.0925666764,0.4899251887,-0.6442562824,-0.9702324997,-0.2855459937,-1.5847185768,1.2758899352,2.4844120354,-1.647830452,17.5521703007,-8.2002588677,-8.4881137539,45.1922064482,-35.2991752679,29.299271367,117.1095588165,0.6422794705,8.3400645856,-5.2101084982,3.1562926465,-3.106701813,-2.3175786454,-14.2545216044,-6.16060619,3.0620637973,-0.9802065349,349.8220612218,-194.6710909087,-185.9382897405,148.2005088964,-163.845477179,1946.1708871717,-95.6137230678,62.8050855407,9.720880416,-101.569670784,-157.8187004451,264.0191308108,139.038571691,196.1236478422,12.0881907478,-10.0914178515,9.5250283605,-10.3810051349,154.0659111996,-51.4504188447,4.3329208014,-5.092133877,1.9060692314,21.641868053,-17.68700588,1.2998379701,-1.908696032,-0.4916914573,-0.618232303,0.3640149023,1.1013877696,0.784999607,2.1441480582,-2.8862349406,7.1125290944,0.0452411998,-45.7726600447,-41.534542122,45.4140694804,1.1927714025,4.0735143393,26.438138472,7.7606726726,-0.192618488,0.4454613694,-1.0426934645,-0.5126277827,-0.4650160209,-16.5181007189,-25.2299262919,-1.6820277056,5.6701819832,-5.2052586197,6.2685815533,-0.4746672428,0.5534009464,6.0365570143,1.8319882133,-2.850894821,-0.6034182921,4.5631690764,0.9138458455,2.247450248,-0.0434145044,-0.5926222348,0.0548043051,0.7291056268,224.4171195871,159.3574009716,217.4975172861,-18.3179736953,-32.9221528102,14.7181273752,60.6488743891,24.4519507766,0.0319503097,-14.7158823141,18.3369343761,-57.7664443855,37.2815854625,228.3892843548,2.6734826223,-50.877712919,-32.2416616716,3347.5460564227,-135.7772195708,530.2886177232,154.2100658983,-27.8841172789,-24.6419937277,7.4950544599,-0.807471011,2.5887017097,20.775535736,-90.9732159649,29.168201398,2.3245775485,21.9691188109,-105.3747648868,-498.5200450822,843.3149374563,-4.4474672557,-29.5043119601,-60.6376576727,63.2456334151,2.4188361886,-2.3415720993,4.2383729136,4.9575056905,2.6757067674,0.1676455071,-0.1610514176,-4.0399225307,0.0111669158,-1.8111684266,-1.7721091848,2.0232886926,0.7578601092,0.8089816966,-0.969738262,1.9039148013,-0.2334139063,0.8887283543,0.7667737706,-4.2206945343,-4.6367134417,4.1709780823,14.848891982,-0.6371934567,-0.3497170783,-0.647779369,-0.3971625166,0.0636768625,0.923771455,1.4461778401,-433.5740955054,16.6165063727,204.8285284825,51.0904921389,-647.4862442152,-58.7372258175,-401.7737592354,55.7312400812,4.2723173214,350.5646126057,62.8889425057,-259.9959995206,0.1964492407,-1.9585340143,3505.6276787092,1551.2850147095,112.5882544329,88.5104547389,74.8284934583,-19.2966073449,317.604630987,-18.8309891709,0.3095388542,-12.9837670531,-8.4306198439,6.5176161198,1.1622774352,11.027618684,5.0231604956,7.2393003458,-13.4415541271,25.4166535457,4.5923246369,6.7185188536,-15.7749653522,12.4338904732,225.6643469506,9.8525836833,26.5731357224,1.067177439,15.3675725336,2.9325305762,3.2183895828,-7.584457276,-7.8621533033,-1.2568656513,0.1775585254,2.0160569981,22.5138813085,1.5628401312,-7.6629171902,15.2276126564,8.7863027441,-20.3620018748,4.5259453403,2.1520759581,-1.091663893,2.1696046993,0.5506685941,-0.7533282061,-0.2461673772,-0.5279311834,0.3909140764,0.4724157025,1.1185513728,-3.1917034857,1.8076296372,8.7297335551,51.9075744848,68.5494050881,-0.7817638578,-34.097950121,-82.2541149781,-136.7128821167,407.9681107977,549.0473651887,-157.1949204084,42.0681122038,-44.796481711,1.6942840051,0.1042536569,-6.5508460426,-17.4615654098,19.5695400935,2.3288810301,0.2026266762,-27.6099494673,43.1472947227,-0.3988234945,-8.7948704286,-6.9923342181,1.6196127874,0.4582142607,0.3632119337,0.4185620248,1.2118026586,5.8825877562,-0.9209435716,0.5190845427,0.0301587464,-0.0067946867,0.080834738,1.0466844798,26.2768697852,2.8194040961,33.2574767626,1.0166390616,1.1627740611,43.939734642,6.6133204365,0.1770173357,-0.2627519949,0.2700550524,0.1845832533,3.7404989926,1.2442890913,0.6627003216,13.8234324473,0.4453015304,-1.0770881731,-0.5350131253,0.481190659,-1.2280890802,3.1464045101,-1.1573757003,3.7127272119,0.7200858046,-0.4260897901,-0.0269095279,-1.0055628693,-1.2232399799,-0.3202401752,0.7570996038,0.1706967821,0.3678295446,0.8495547491,28.8506214004,-126.1946451642,-371.4307082883,-109.0454780348,-23.1744706441,27.2845591288,4.6710714689,-0.4292953537,6.1053455467,-15.5003020954,-10.8097786733,-17.6626581162,-16.3896277305,1.4820271942,-5.2952668896,-24.3514268394,-5.967731247,11.6420123704,23.0079658358,9.0564222327,6.2471893835,13.6354703181,-11.7089394084,-3.4486273758,10.060036954,1.2349084237,-2.3554618155,-0.6287812658,-4.8110496553,-1.6024784892,5.4678586643,-3.2292328015,18.7158074367,22.4329281671,-41.7876108602,-38.8069391422,-2.2451472854,132.9687618051,-265.6426011218,14.6656276153,2475.6840286247,-395.2997193534,-167.8671484444,54.1780714322,92.035639435,-46.6969708726,-1.9186564097,-17.7564280048,-4.0251971403,43.3924774211,9.5715456645,-7.0794704967,3.0200071029,0.2937205771,-2.4914182495,4.7120012082,0.3445155138,1.7675526148,2.2128764781,0.2825846326,-1.0825349681,-2.4598121019,1.063123395,0.7282797647,0.0787440413,0.5081483479,0.5929418047,-0.9437333183,-21.8511215909,82.7688476166,81.8356980376,100.5660631511,175.7724955815,-14.6555582429,1.2229492376,-4.5539528002,3.9023941782,-1.0756437525,0.7644858398,1.9972742441,-0.0100090243,0.2839647012,-0.9418436726,-3.6673718988,0.7961521236,-4.216369846,-0.7275334141,-11.6666777838,3.3058518006,1.1653456932,16.8415996738,3.7050602511,1.8099503626,-0.8040488973,-20.9890620779,-4.9806626301,0.3603481065,0.0812588382,-0.5580626677,0.003529746,-2.1829335253,-1.5439725447,-33.5272326987,-15.2989573136,118.6070535628,92.6272974645,-30.6479503048,-12.4672981753,-9.7669336418,-4.6692686606,0.2660487338,-1.6933542367,-24.4591356524,53.6208929256,48.7498262379,-4.0428727033,5.4812670823,3.7175308657,-17.195635706,-1.1935154323,1.4397291671,-7.491405588,3.7603997433,2.3393927299,-0.5223022635,0.4805536061,1.8388232517,-0.2425622877,-0.2868499086,0.7390851062,0.8493172391,0.7588749597,1.0314023121,1.2680789002,0.5598136431,0.6691229614,5.5027588814,7.4843069214,39.4496472858,-28.8978939112,-110.8482094404,-12.7479917807,-68.4673844789,-1.6763065985,6.8513720685,-0.1590152419,-1.6165223815,7.4598838865,8.9393031724,13.3151521072,26.2072344255,4.1550519538,-5.7852108006,38.3275827024,5.7334828955,-13.6620266796,-13.0967990892,-51.0701491696,-0.1414253914,-0.3839625977,-3.2333790772,-11.06598763,3.4976963789,58.8975563882,0.7194544934,5.3832599435,-2.1838711257,-1.9680093341,0.2524250671,-2.7409177468,1.1864299071,-40.5143188663,-7.8882217982,-19.7362121084,17.1742332856,10.254852373,76.2594579013,9.7672006967,26.9135928755,146.0247296557,7.8894048572,1.3050135119,-3.4999234351,-2.3218654623,-4.1066824387,-8.738613618,-11.0821254258,2.0792274565,-3.3872058833,6.5874254556,6.7884012232,-38.6675397675,6.0776452212,0.1283060273,23.2272268738,-8.2787113028,-7.4460950869,-1.9075991683,1.3246069997,-1.0311826741,-0.2438351577,0.9016913588,-0.4760917014,0.1844661454
biasActivation=0,0,0
[BASIC:ACTIVATION]
"org.encog.engine.network.activation.ActivationElliottSymmetric",1
"org.encog.engine.network.activation.ActivationElliottSymmetric",1
"org.encog.engine.network.activation.ActivationLinear"
